<?xml version="1.0"?>
<opencv_storage>
<opencv_ml_ann_mlp>
  <format>3</format>
  <layer_sizes>
    12 8 6 4 2</layer_sizes>
  <activation_function>SIGMOID_SYM</activation_function>
  <f_param1>6.6666666666666663e-001</f_param1>
  <f_param2>1.7159000000000000e+000</f_param2>
  <min_val>-9.4999999999999996e-001</min_val>
  <max_val>9.4999999999999996e-001</max_val>
  <min_val1>-9.7999999999999998e-001</min_val1>
  <max_val1>9.7999999999999998e-001</max_val1>
  <training_params>
    <train_method>BACKPROP</train_method>
    <dw_scale>1.0000000000000001e-001</dw_scale>
    <moment_scale>1.0000000000000001e-001</moment_scale>
    <term_criteria>
      <epsilon>1.0000000000000000e-002</epsilon>
      <iterations>1000</iterations></term_criteria></training_params>
  <input_scale>
    1. 107374176. 1. 107374176. 1. 107374176. 1. 107374176. 1.
    107374176. 1. 107374176. 1. 107374176. 1. 107374176. 1. 107374176.
    1. 107374176. 1. 107374176. 1. 107374176.</input_scale>
  <output_scale>
    1. 231. 1. 456.</output_scale>
  <inv_output_scale>
    1. -231. 1. -456.</inv_output_scale>
  <weights>
    <_>
      -9.0410737143957420e-002 -1.0617623716663334e-001
      -8.7238136957634341e-002 -9.3923207563752795e-004
      -1.0115608838765976e-001 7.9787776618409374e-003
      6.0372488274461351e-002 7.8823422580845473e-002
      1.2274836463157827e-001 -6.3016192832666504e-002
      1.1310369220916032e-001 1.2289524761881469e-001
      4.6729602682173507e-002 -6.7637139302196211e-002
      5.1253550380598020e-002 5.5483813120020833e-002
      -1.5789712842880468e-002 1.7510330615359455e-002
      1.7356430087141324e-002 -5.9508399669411523e-002
      -7.8557827049803422e-002 4.1341334449218108e-002
      8.3878209747979784e-002 5.1668752497358528e-002
      9.7710871506705405e-002 -4.4405970812058132e-002
      1.2139899697805502e-001 -1.5177275656280179e-001
      9.1588756816466929e-002 6.0134519900551152e-002
      1.4574255775844386e-001 1.5023538942090550e-001
      9.2589123681505611e-002 1.3796223606059052e-001
      -8.5780786061356085e-002 7.9990585241963244e-002
      -1.1995867920360864e-001 1.5462311877124085e-001
      -9.8127182647879146e-002 -1.2699285094754645e-001
      -2.8614200933400617e-002 -1.3689829405112608e-001
      3.6513688093325510e-002 -9.3778837248214050e-002
      2.7179719837585756e-002 -1.9546921575414124e-002
      -1.0744750710237393e-001 1.1115790828683608e-001
      -9.8689427056329992e-002 -1.4946727943391314e-001
      3.1836517134065559e-002 -1.2890411508339975e-001
      -1.1312049626409748e-001 -1.6725852486221018e-001
      -2.5708776374778749e-002 -6.7308782057029226e-002
      -1.3223428165486512e-001 4.3550963881377670e-002
      -1.0498788053883595e-001 -1.5172055854445335e-001
      1.2311375089230038e-001 -6.1214895782476186e-002
      -7.4561292172389604e-002 4.9819979492442754e-002
      -4.2766870715351187e-002 2.6461371166382534e-002
      -1.2832096887369873e-001 4.6801454431719385e-003
      1.7368922294308472e-002 1.5643654453113217e-002
      2.7977446160752647e-002 -1.3738405430113201e-001
      -1.2596754921551162e-001 -8.8501496433636320e-002
      9.0111044066634768e-002 -1.0160292283277964e-001
      -1.1720151833776755e-001 1.3663330430785992e-001
      8.6593922027460551e-002 -1.8676461709356117e-002
      6.3405717802120509e-002 -1.2369252259738321e-001
      1.0010165149115983e-001 8.5563420442664462e-002
      8.2084818680235344e-002 8.5253514101809896e-002
      1.5890839119440686e-001 1.1677774945680211e-001
      8.9073142815793871e-002 6.2357104948873102e-002
      -8.3250207508932361e-002 1.8643779236688120e-002
      8.1939819553992738e-002 -1.8273429483206932e-001
      -7.9428676158475361e-002 -3.5670836129724930e-002
      -1.6749696426425424e-002 -7.7617955163159086e-002
      -3.3459164526204205e-002 4.6118154248123808e-002
      2.7771788375706300e-003 3.1044527828734073e-002
      -8.3082628712979445e-002 2.8532556760991756e-002</_>
    <_>
      5.1671455930227123e-002 -1.2307535347147643e-001
      2.2161223849080834e-002 1.4617761761793027e-001
      -2.0140620760509778e-001 3.8844780034469346e-002
      9.7682676891122408e-002 1.2053738887417301e-001
      2.0406109067248895e-001 -1.3388748719486765e-001
      -1.3325600613544875e-001 -7.5678173905065343e-002
      -1.4711966695333237e-001 -1.3683274640248769e-001
      1.7210938604610235e-001 1.8386461854873656e-001
      1.6482070654813710e-001 1.6803744383752217e-001
      -1.4690387942134922e-001 7.5195637074556365e-003
      1.4348733581567383e-001 1.9326591788103800e-001
      5.6515542092874328e-002 1.9618702439714220e-001
      2.4748895367147164e-001 1.5813118067461204e-001
      7.0733490071271110e-002 1.5652447483265150e-001
      1.2150234967272674e-001 -7.8434479069667176e-002
      8.7503286806357494e-002 -1.3191263643406417e-001
      1.8932596698814246e-002 -9.6295451185373721e-002
      -6.2402942123507353e-002 7.1183889591242319e-002
      1.0696910411769003e-001 1.8133137119269202e-001
      -2.1481166959250397e-001 -3.3795823887722854e-005
      -4.5098999550100269e-005 -2.1234291048544660e-001
      1.1465311894113864e-001 -1.4289198947945964e-001
      -1.5348592111134740e-001 -8.9531716103812553e-002
      -2.5969525563524382e-001 1.5550581388693152e-001
      2.9976616915011983e-001 -2.0588842803915160e-002
      9.8159921575170263e-003 1.1637278063001180e-002
      -4.5973019703847637e-002 1.0326997900154382e-001</_>
    <_>
      -5.5755889704688345e-002 -1.9550718158374131e-001
      1.9409595354892598e-001 -2.5748484468558397e-001
      -2.9224075162870355e-001 1.8373463325323350e-001
      2.3291173414548741e-001 1.0433591542771421e-001
      3.0625870574780906e-001 -1.0029791484132827e-001
      -4.0547292864543810e-002 5.6476326899276792e-002
      -1.1369767403477243e-001 -1.6951955340242944e-001
      6.6489372420823256e-002 3.0437887423562510e-001
      -7.3430174999597558e-002 -2.1690300332128448e-001
      2.0567728008655489e-001 1.3502415229646816e-001
      -1.1053114807144009e-001 1.4038927505739404e-001
      -2.6534992706876548e-001 1.3239617766843173e-001
      -1.7849759161277348e-001 -2.8198283854946559e-002
      8.5253316923374109e-002 -1.2908782088273840e-001</_>
    <_>
      -8.5900884147467726e-001 8.2486029634422409e-001
      4.4281709138966346e-001 -5.4636945148835880e-001
      -3.8670613295387218e-001 5.9689523737144445e-001
      -2.0057252003812961e-001 -2.3179722311882017e-001
      4.6091580365849738e-001 1.5625886587050120e-001</_></weights></opencv_ml_ann_mlp>
</opencv_storage>
