<?xml version="1.0"?>
<opencv_storage>
<opencv_ml_ann_mlp>
  <format>3</format>
  <layer_sizes>
    12 8 6 4 2</layer_sizes>
  <activation_function>SIGMOID_SYM</activation_function>
  <f_param1>6.6666666666666663e-001</f_param1>
  <f_param2>1.7159000000000000e+000</f_param2>
  <min_val>-9.4999999999999996e-001</min_val>
  <max_val>9.4999999999999996e-001</max_val>
  <min_val1>-9.7999999999999998e-001</min_val1>
  <max_val1>9.7999999999999998e-001</max_val1>
  <training_params>
    <train_method>BACKPROP</train_method>
    <dw_scale>1.0000000000000001e-001</dw_scale>
    <moment_scale>1.0000000000000001e-001</moment_scale>
    <term_criteria>
      <epsilon>1.0000000000000000e-002</epsilon>
      <iterations>1000</iterations></term_criteria></training_params>
  <input_scale>
    1. 107374176. 1. 107374176. 1. 107374176. 1. 107374176. 1.
    107374176. 1. 107374176. 1. 107374176. 1. 107374176. 1. 107374176.
    1. 107374176. 1. 107374176. 1. 107374176.</input_scale>
  <output_scale>
    1. 59. 1. 434.</output_scale>
  <inv_output_scale>
    1. -59. 1. -434.</inv_output_scale>
  <weights>
    <_>
      -5.6388971630084508e-002 -1.3893901094316688e-001
      1.2622511053764457e-001 -5.3765334408145829e-003
      -4.0862837999514061e-002 -6.9285904024230585e-002
      -7.9284393035530462e-002 -9.6245914634489824e-002
      -5.5195731911108194e-002 1.7396044390792983e-001
      6.8704102929692687e-002 1.3183582583292552e-001
      1.5089443317925999e-001 -1.1770352710880735e-001
      -8.8235127488738921e-002 -1.0180244356231456e-001
      8.3260038269550654e-002 3.9645498206843516e-002
      1.3954310342148635e-001 9.2901192956633488e-002
      -1.3095568835791829e-001 1.0125180421716716e-001
      -1.2777655758043038e-001 -1.2844785590976077e-001
      4.6422038367660484e-002 -3.6819622692948001e-002
      -1.0011693986848093e-001 1.2584046343650451e-001
      7.2198297413103463e-002 -4.4925768124498486e-002
      -4.1693191696469845e-002 4.5788987528759956e-003
      1.6218232333220509e-001 -6.1832671042893812e-002
      3.5292770654399737e-002 -1.4361606359999859e-001
      -2.1057458064674191e-002 -9.5078878885250642e-002
      4.2086047554005142e-002 -1.1324464197303349e-001
      1.1909351658661492e-002 8.5139091201292968e-002
      -2.7661890210107561e-002 1.1252582795829509e-001
      -3.6558071229412945e-002 1.0936961453102645e-001
      -1.4813466392711502e-001 -1.0102059171921857e-001
      -1.1975865709912174e-001 -8.2300085459415001e-002
      -1.2017052683728974e-001 -9.5497923779024139e-003
      7.4675120880102502e-002 2.9821436195751540e-002
      -9.6151269777307577e-002 4.7196892713545352e-002
      -8.3875595526893831e-002 -1.3255701072788359e-001
      -1.5876306360551598e-001 -5.8053727042235305e-002
      1.2784952670080160e-002 -9.3038751584574045e-002
      -1.2358152625825686e-001 1.0942162374627294e-001
      1.1044466686862160e-001 6.1418286628655977e-002
      4.8353154779310160e-002 8.1363549787018319e-002
      -1.5516197532201992e-001 -1.1032398633447965e-001
      -1.1965051633385956e-001 -8.1947801838752055e-002
      -1.7002480374381013e-001 -9.1757492613115856e-003
      -4.2889869191816477e-002 1.2783051653109012e-001
      -9.9273403124388954e-002 2.2208244989233246e-002
      -6.1684914943217060e-002 1.0910261535974168e-001
      2.1269229293567397e-002 8.6886683935978135e-002
      9.1911482275838317e-003 3.9742759878831956e-003
      -1.5215544709124662e-001 -8.5761196683934268e-002
      4.8673910331046386e-002 7.3332840860851484e-002
      -7.9268592298714705e-002 -9.1325845991680768e-002
      1.2308831973667204e-001 -1.0713223104869893e-001
      5.3422314668279160e-002 -1.2123088732104680e-001
      -2.3047881074022915e-002 3.3657878929143202e-002
      1.1549591592396892e-001 1.0503395590964493e-001
      -6.9611374158323969e-002 3.6296665805921974e-002
      1.0592456405413104e-003 9.4369150445175378e-003
      7.4939320082929056e-002 3.5081867142670441e-002</_>
    <_>
      9.1784167147059323e-002 -1.4363766680641166e-001
      -1.6166318631082985e-001 1.8432802567809986e-001
      -1.4623610044076477e-001 2.6341367690700551e-001
      -2.6121274154865604e-001 1.5891164446968759e-001
      3.6128023473884330e-002 -2.7084942717895066e-001
      -1.0243139976157886e-001 -9.9632151687554585e-002
      -1.3717751679215676e-001 -5.7767340739109732e-003
      1.9208014839130444e-001 -6.4733609389376664e-003
      2.8625057847192814e-001 -2.7120844656315340e-001
      2.0665567202924101e-001 1.9880963628911466e-001
      1.1438018222426459e-001 -7.1533817636407732e-002
      -3.9836298752039647e-003 -9.7291343929367682e-002
      -1.3707121227358979e-001 -1.3365482243120588e-001
      9.1586858395275250e-002 -3.0475044412130309e-001
      -1.3685117394533999e-001 -1.1591977069809455e-002
      5.2089225042695565e-002 -2.2357862487903646e-001
      -6.3882681118765522e-002 3.7833198164627518e-002
      -1.7711884808165088e-002 2.7996401486508216e-002
      -2.7285695241753127e-002 -7.7704185517883453e-002
      1.6090071342211978e-001 -2.4019236112230197e-002
      -2.3281128970251894e-001 2.3934591757615507e-002
      -8.6758162219640250e-002 5.7647842405342514e-002
      -1.7937211145802193e-001 -1.0035437049512028e-001
      7.3435174677613860e-002 2.0534120478520979e-001
      2.2481971267199835e-001 3.0768793164566099e-002
      -5.8820313304697794e-003 -4.1319018083813917e-003
      1.6982748550507489e-002 1.4346595967029030e-001</_>
    <_>
      2.2456457710171540e-001 3.4110268607684485e-001
      1.9353154034872860e-001 6.0874018673318611e-002
      -9.0911974725954248e-002 1.1596509252935630e-001
      -2.2796598778916191e-001 3.4068378676419048e-001
      -2.1194849836206572e-001 3.3496896048279912e-001
      -2.3877285934830400e-001 -2.7813391994035730e-001
      1.2983657192886763e-001 -4.1701177051467378e-002
      -1.8997337133704034e-003 2.3767800173798459e-001
      -1.3494260256311680e-001 -1.4298142408570019e-001
      8.8598400472208613e-002 -1.6368246390781847e-002
      2.0819338219669223e-001 2.5116136081815819e-002
      2.5643741047181623e-001 5.8576002538185158e-002
      1.4032765657881857e-002 -1.9620291852465610e-001
      3.5679680371455830e-002 -1.5237769630641693e-001</_>
    <_>
      7.4013304556553317e-001 1.4985531307837294e-001
      -4.8409159368453242e-001 -2.9204638131862715e-001
      6.1354522856908145e-001 -6.5353298127151505e-001
      -2.9216374955519259e-001 6.0661362083900283e-001
      -2.3731038577862568e-001 5.4947558429386023e-001</_></weights></opencv_ml_ann_mlp>
</opencv_storage>
