<?xml version="1.0"?>
<opencv_storage>
<opencv_ml_ann_mlp>
  <format>3</format>
  <layer_sizes>
    9 2 2 2 2</layer_sizes>
  <activation_function>SIGMOID_SYM</activation_function>
  <f_param1>6.6666666666666663e-001</f_param1>
  <f_param2>1.7159000000000000e+000</f_param2>
  <min_val>-9.4999999999999996e-001</min_val>
  <max_val>9.4999999999999996e-001</max_val>
  <min_val1>-9.7999999999999998e-001</min_val1>
  <max_val1>9.7999999999999998e-001</max_val1>
  <training_params>
    <train_method>BACKPROP</train_method>
    <dw_scale>1.0000000000000001e-001</dw_scale>
    <moment_scale>1.0000000000000001e-001</moment_scale>
    <term_criteria>
      <epsilon>1.0000000000000000e-002</epsilon>
      <iterations>1000</iterations></term_criteria></training_params>
  <input_scale>
    1. 0. 1. 0. 1. 0. 1. -1.5055556305899692e-038 1.
    -1.5055612357838265e-038 1. 0. 1. 0. 1. 107374176. 1. 107374176.</input_scale>
  <output_scale>
    1. 251. 1. 283.</output_scale>
  <inv_output_scale>
    1. -251. 1. -283.</inv_output_scale>
  <weights>
    <_>
      1.8811562701580703e-001 -5.2628919195802884e-002
      -1.9623377396788436e-001 5.3505640327937434e-002
      1.9028374293201436e-001 2.3561619985123325e-001
      -3.8828022104625590e-002 6.5027607044233104e-002
      -7.4204064390525237e-002 6.4127375830791478e-002
      -7.2466385896482244e-002 2.1518418656047336e-001
      -6.6023201267599889e-003 -1.2752563207480710e-001
      1.3692010511859365e-001 1.7677520095952182e-001
      9.6345958447307659e-002 9.6092381551994583e-003
      -1.4234163873643485e-001 2.2238859592924886e-002</_>
    <_>
      2.6701065858871831e-001 1.6966368077940146e-002
      7.2915399532890768e-001 9.8281830193948838e-001
      -1.2845763550981009e+000 3.3560859696243565e-003</_>
    <_>
      6.6800513000571693e-001 5.1776387370238564e-001
      -1.9309557255958787e-001 -5.3963753782513246e-001
      -4.4471495269265332e-001 -8.0586973822865976e-002</_>
    <_>
      5.1037309091356453e-001 6.4175843790187936e-001
      1.6102138868561853e-002 8.8408874938467064e-001
      -2.3452309308856892e-001 6.9344094103336007e-001</_></weights></opencv_ml_ann_mlp>
</opencv_storage>
